


    // !!! This file is generated using emlearn !!!

    
    
/*
EmlTreesNode decision_tree_nodes[179] = {
  { 323, 3771955.0, 1, 6 },
  { 511, 4655655168.0, 2, 5 },
  { 419, 525012992.0, 3, 4 },
  { -1, 1, -1, -1 },
  { -1, 5, -1, -1 },
  { 926, 48512950.0, 4, 3 },
  { 778, 4772314880.0, 7, 176 },
  { 835, 96083748.0, 8, 39 },
  { 60, 1596385024.0, 9, 29 },
  { 718, 26806300.0, 10, 25 },
  { 1023, 152341000192.0, 11, 18 },
  { 1, 5251384832.0, 12, 15 },
  { 751, 8342555.0, 13, 4 },
  { 597, 437239008.0, 3, 14 },
  { -1, 2, -1, -1 },
  { 961, 10502669824.0, 16, 3 },
  { 1014, 453465997312.0, 17, 14 },
  { 912, 25605900.0, 14, 4 },
  { 394, 34540550.0, 14, 19 },
  { 981, 1807891440.0, 20, 21 },
  { -1, 0, -1, -1 },
  { 755, 10308755.0, 22, 23 },
  { -1, 4, -1, -1 },
  { 904, 131367848.0, 4, 24 },
  { -1, 8, -1, -1 },
  { 1023, 11958510080.0, 3, 26 },
  { 512, 28754849792.0, 14, 27 },
  { 787, 15633200.0, 28, 4 },
  { 952, 936802528.0, 20, 24 },
  { 546, 51688298496.0, 30, 38 },
  { 511, 67927650304.0, 31, 35 },
  { 49, 4942825088.0, 32, 34 },
  { 433, 305426504.0, 33, 14 },
  { -1, 9, -1, -1 },
  { 589, 6950210048.0, 3, 4 },
  { 345, 46541550.0, 24, 36 },
  { 514, 288618004480.0, 37, 22 },
  { -1, 6, -1, -1 },
  { 129, 239196696.0, 20, 33 },
  { 514, 3949625081856.0, 40, 171 },
  { 53, 6668290048.0, 41, 133 },
  { 1, 392104493056.0, 42, 114 },
  { 507, 131642499072.0, 43, 89 },
  { 514, 403907510272.0, 44, 67 },
  { 926, 8102214912.0, 45, 20 },
  { 240, 124714500.0, 46, 66 },
  { 172, 106528500.0, 47, 58 },
  { 26, 7894014976.0, 48, 57 },
  { 798, 137355504.0, 49, 55 },
  { 130, 231483496.0, 50, 24 },
  { 1023, 74624303104.0, 33, 51 },
  { 941, 1283715008.0, 52, 53 },
  { -1, 3, -1, -1 },
  { 651, 207757496.0, 22, 54 },
  { 441, 598223520.0, 37, 3 },
  { 434, 787692992.0, 56, 4 },
  { -1, 7, -1, -1 },
  { 923, 1796134976.0, 14, 20 },
  { 982, 36269099008.0, 59, 64 },
  { 316, 204586000.0, 60, 61 },
  { 455, 6603829760.0, 33, 37 },
  { 165, 666091008.0, 62, 33 },
  { 719, 212774496.0, 63, 37 },
  { 161, 215665504.0, 20, 52 },
  { 590, 8819484928.0, 14, 65 },
  { 843, 865975488.0, 52, 4 },
  { 207, 399979504.0, 4, 33 },
  { 926, 1416504960.0, 68, 73 },
  { 537, 71815600128.0, 69, 72 },
  { 866, 756215520.0, 24, 70 },
  { 838, 655865984.0, 71, 24 },
  { 565, 5201190016.0, 52, 14 },
  { 325, 94421752.0, 4, 33 },
  { 986, 15986150400.0, 74, 83 },
  { 606, 2106540032.0, 75, 77 },
  { 8, 22619449344.0, 76, 52 },
  { 325, 32873660.0, 20, 22 },
  { 835, 621265504.0, 78, 79 },
  { 137, 134446544.0, 33, 24 },
  { 766, 18241300.0, 37, 80 },
  { 1014, 60397950976.0, 81, 33 },
  { 28, 6187534976.0, 14, 82 },
  { 847, 986907504.0, 56, 22 },
  { 637, 3506945024.0, 84, 87 },
  { 1021, 184338997248.0, 85, 86 },
  { 485, 24044800000.0, 14, 33 },
  { 500, 73474596864.0, 52, 4 },
  { 554, 8601249792.0, 88, 24 },
  { 995, 69128202240.0, 37, 20 },
  { 88, 467570992.0, 90, 92 },
  { 227, 4706845.0, 24, 91 },
  { 479, 5780930048.0, 20, 33 },
  { 676, 792073504.0, 93, 97 },
  { 12, 17344849920.0, 94, 96 },
  { 662, 709781504.0, 95, 20 },
  { 1021, 488982511616.0, 24, 33 },
  { 572, 1665134976.0, 33, 14 },
  { 523, 34919200768.0, 37, 98 },
  { 590, 4751725056.0, 99, 103 },
  { 425, 978461024.0, 100, 102 },
  { 88, 781689472.0, 20, 101 },
  { 65, 2798270080.0, 14, 22 },
  { 16, 71666800640.0, 33, 14 },
  { 513, 640940998656.0, 104, 113 },
  { 876, 2202535040.0, 105, 111 },
  { 601, 7824110080.0, 106, 110 },
  { 885, 2102695040.0, 107, 20 },
  { 490, 9229635072.0, 14, 108 },
  { 278, 98394846.0, 37, 109 },
  { 958, 17214900352.0, 52, 33 },
  { 22, 20374599680.0, 24, 4 },
  { 614, 7572104960.0, 52, 112 },
  { 968, 19757369600.0, 22, 33 },
  { 852, 745108512.0, 22, 14 },
  { 6, 86561648640.0, 115, 122 },
  { 361, 239088504.0, 24, 116 },
  { 787, 698167488.0, 117, 120 },
  { 513, 801740488704.0, 118, 22 },
  { 688, 779358016.0, 52, 119 },
  { 600, 2281089984.0, 24, 22 },
  { 1017, 100843499520.0, 24, 121 },
  { 222, 1529965024.0, 22, 24 },
  { 555, 28949000192.0, 123, 56 },
  { 1019, 558198521856.0, 124, 132 },
  { 510, 942848999424.0, 125, 127 },
  { 583, 1766254976.0, 14, 126 },
  { 205, 820716000.0, 33, 22 },
  { 499, 61837948928.0, 128, 24 },
  { 607, 12251549696.0, 129, 52 },
  { 754, 707474976.0, 130, 56 },
  { 789, 87102000.0, 20, 131 },
  { 433, 2539045056.0, 37, 4 },
  { 577, 5854204928.0, 56, 22 },
  { 738, 24494200.0, 134, 136 },
  { 945, 22044850176.0, 135, 20 },
  { 473, 15012550144.0, 37, 33 },
  { 126, 3719444992.0, 137, 169 },
  { 723, 293383504.0, 138, 150 },
  { 1010, 147774496768.0, 139, 143 },
  { 847, 1160184960.0, 140, 141 },
  { 706, 174697000.0, 14, 37 },
  { 41, 15779549696.0, 22, 142 },
  { 158, 1001726016.0, 52, 14 },
  { 997, 68868198400.0, 144, 148 },
  { 1003, 141519003648.0, 145, 33 },
  { 842, 1304134976.0, 146, 52 },
  { 977, 27083249664.0, 20, 147 },
  { 760, 77403050.0, 3, 37 },
  { 618, 1557320064.0, 149, 20 },
  { 425, 942197504.0, 3, 14 },
  { 501, 54347399168.0, 151, 157 },
  { 615, 4527625216.0, 152, 153 },
  { 688, 961087520.0, 56, 33 },
  { 519, 100289400832.0, 154, 155 },
  { 758, 592511504.0, 37, 33 },
  { 518, 561812013056.0, 156, 56 },
  { 459, 31116449792.0, 52, 14 },
  { 31, 46580049920.0, 158, 167 },
  { 12, 103768997888.0, 159, 165 },
  { 667, 3534440064.0, 160, 161 },
  { 74, 2689924960.0, 24, 22 },
  { 310, 534596496.0, 162, 56 },
  { 167, 1529179968.0, 163, 37 },
  { 286, 54922550.0, 20, 164 },
  { 405, 3150010048.0, 14, 52 },
  { 537, 137613000704.0, 14, 166 },
  { 762, 793777024.0, 22, 56 },
  { 624, 2239355008.0, 168, 33 },
  { 559, 52960100352.0, 4, 24 },
  { 555, 129081499648.0, 170, 24 },
  { 107, 3512235008.0, 22, 37 },
  { 416, 4888809984.0, 172, 175 },
  { 262, 55759500.0, 173, 174 },
  { 20, 55304648704.0, 52, 20 },
  { 982, 6821185024.0, 56, 22 },
  { 846, 5206760192.0, 56, 52 },
  { 1014, 509768499200.0, 177, 22 },
  { 769, 3109430016.0, 33, 178 },
  { 611, 3141214976.0, 52, 56 } 
};

int32_t decision_tree_tree_roots[1] = { 0 };

EmlTrees decision_tree = {
        179,
        decision_tree_nodes,	  
        1,
        decision_tree_tree_roots,
    };
*/
#include <cstdint> 
static inline int32_t decision_tree_tree_0(const float *features, int32_t features_length) {
          if (features[323] < 3771955.000000f) {
              if (features[511] < 4655655168.000000f) {
                  if (features[419] < 525012992.000000f) {
                      return 1;
                  } else {
                      return 5;
                  }
              } else {
                  if (features[926] < 48512950.000000f) {
                      return 5;
                  } else {
                      return 1;
                  }
              }
          } else {
              if (features[778] < 4772314880.000000f) {
                  if (features[835] < 96083748.000000f) {
                      if (features[60] < 1596385024.000000f) {
                          if (features[718] < 26806300.000000f) {
                              if (features[1023] < 152341000192.000000f) {
                                  if (features[1] < 5251384832.000000f) {
                                      if (features[751] < 8342555.000000f) {
                                          if (features[597] < 437239008.000000f) {
                                              return 1;
                                          } else {
                                              return 2;
                                          }
                                      } else {
                                          return 5;
                                      }
                                  } else {
                                      if (features[961] < 10502669824.000000f) {
                                          if (features[1014] < 453465997312.000000f) {
                                              if (features[912] < 25605900.000000f) {
                                                  return 2;
                                              } else {
                                                  return 5;
                                              }
                                          } else {
                                              return 2;
                                          }
                                      } else {
                                          return 1;
                                      }
                                  }
                              } else {
                                  if (features[394] < 34540550.000000f) {
                                      return 2;
                                  } else {
                                      if (features[981] < 1807891440.000000f) {
                                          return 0;
                                      } else {
                                          if (features[755] < 10308755.000000f) {
                                              return 4;
                                          } else {
                                              if (features[904] < 131367848.000000f) {
                                                  return 5;
                                              } else {
                                                  return 8;
                                              }
                                          }
                                      }
                                  }
                              }
                          } else {
                              if (features[1023] < 11958510080.000000f) {
                                  return 1;
                              } else {
                                  if (features[512] < 28754849792.000000f) {
                                      return 2;
                                  } else {
                                      if (features[787] < 15633200.000000f) {
                                          if (features[952] < 936802528.000000f) {
                                              return 0;
                                          } else {
                                              return 8;
                                          }
                                      } else {
                                          return 5;
                                      }
                                  }
                              }
                          }
                      } else {
                          if (features[546] < 51688298496.000000f) {
                              if (features[511] < 67927650304.000000f) {
                                  if (features[49] < 4942825088.000000f) {
                                      if (features[433] < 305426504.000000f) {
                                          return 9;
                                      } else {
                                          return 2;
                                      }
                                  } else {
                                      if (features[589] < 6950210048.000000f) {
                                          return 1;
                                      } else {
                                          return 5;
                                      }
                                  }
                              } else {
                                  if (features[345] < 46541550.000000f) {
                                      return 8;
                                  } else {
                                      if (features[514] < 288618004480.000000f) {
                                          return 6;
                                      } else {
                                          return 4;
                                      }
                                  }
                              }
                          } else {
                              if (features[129] < 239196696.000000f) {
                                  return 0;
                              } else {
                                  return 9;
                              }
                          }
                      }
                  } else {
                      if (features[514] < 3949625081856.000000f) {
                          if (features[53] < 6668290048.000000f) {
                              if (features[1] < 392104493056.000000f) {
                                  if (features[507] < 131642499072.000000f) {
                                      if (features[514] < 403907510272.000000f) {
                                          if (features[926] < 8102214912.000000f) {
                                              if (features[240] < 124714500.000000f) {
                                                  if (features[172] < 106528500.000000f) {
                                                      if (features[26] < 7894014976.000000f) {
                                                          if (features[798] < 137355504.000000f) {
                                                              if (features[130] < 231483496.000000f) {
                                                                  if (features[1023] < 74624303104.000000f) {
                                                                      return 9;
                                                                  } else {
                                                                      if (features[941] < 1283715008.000000f) {
                                                                          return 3;
                                                                      } else {
                                                                          if (features[651] < 207757496.000000f) {
                                                                              return 4;
                                                                          } else {
                                                                              if (features[441] < 598223520.000000f) {
                                                                                  return 6;
                                                                              } else {
                                                                                  return 1;
                                                                              }
                                                                          }
                                                                      }
                                                                  }
                                                              } else {
                                                                  return 8;
                                                              }
                                                          } else {
                                                              if (features[434] < 787692992.000000f) {
                                                                  return 7;
                                                              } else {
                                                                  return 5;
                                                              }
                                                          }
                                                      } else {
                                                          if (features[923] < 1796134976.000000f) {
                                                              return 2;
                                                          } else {
                                                              return 0;
                                                          }
                                                      }
                                                  } else {
                                                      if (features[982] < 36269099008.000000f) {
                                                          if (features[316] < 204586000.000000f) {
                                                              if (features[455] < 6603829760.000000f) {
                                                                  return 9;
                                                              } else {
                                                                  return 6;
                                                              }
                                                          } else {
                                                              if (features[165] < 666091008.000000f) {
                                                                  if (features[719] < 212774496.000000f) {
                                                                      if (features[161] < 215665504.000000f) {
                                                                          return 0;
                                                                      } else {
                                                                          return 3;
                                                                      }
                                                                  } else {
                                                                      return 6;
                                                                  }
                                                              } else {
                                                                  return 9;
                                                              }
                                                          }
                                                      } else {
                                                          if (features[590] < 8819484928.000000f) {
                                                              return 2;
                                                          } else {
                                                              if (features[843] < 865975488.000000f) {
                                                                  return 3;
                                                              } else {
                                                                  return 5;
                                                              }
                                                          }
                                                      }
                                                  }
                                              } else {
                                                  if (features[207] < 399979504.000000f) {
                                                      return 5;
                                                  } else {
                                                      return 9;
                                                  }
                                              }
                                          } else {
                                              return 0;
                                          }
                                      } else {
                                          if (features[926] < 1416504960.000000f) {
                                              if (features[537] < 71815600128.000000f) {
                                                  if (features[866] < 756215520.000000f) {
                                                      return 8;
                                                  } else {
                                                      if (features[838] < 655865984.000000f) {
                                                          if (features[565] < 5201190016.000000f) {
                                                              return 3;
                                                          } else {
                                                              return 2;
                                                          }
                                                      } else {
                                                          return 8;
                                                      }
                                                  }
                                              } else {
                                                  if (features[325] < 94421752.000000f) {
                                                      return 5;
                                                  } else {
                                                      return 9;
                                                  }
                                              }
                                          } else {
                                              if (features[986] < 15986150400.000000f) {
                                                  if (features[606] < 2106540032.000000f) {
                                                      if (features[8] < 22619449344.000000f) {
                                                          if (features[325] < 32873660.000000f) {
                                                              return 0;
                                                          } else {
                                                              return 4;
                                                          }
                                                      } else {
                                                          return 3;
                                                      }
                                                  } else {
                                                      if (features[835] < 621265504.000000f) {
                                                          if (features[137] < 134446544.000000f) {
                                                              return 9;
                                                          } else {
                                                              return 8;
                                                          }
                                                      } else {
                                                          if (features[766] < 18241300.000000f) {
                                                              return 6;
                                                          } else {
                                                              if (features[1014] < 60397950976.000000f) {
                                                                  if (features[28] < 6187534976.000000f) {
                                                                      return 2;
                                                                  } else {
                                                                      if (features[847] < 986907504.000000f) {
                                                                          return 7;
                                                                      } else {
                                                                          return 4;
                                                                      }
                                                                  }
                                                              } else {
                                                                  return 9;
                                                              }
                                                          }
                                                      }
                                                  }
                                              } else {
                                                  if (features[637] < 3506945024.000000f) {
                                                      if (features[1021] < 184338997248.000000f) {
                                                          if (features[485] < 24044800000.000000f) {
                                                              return 2;
                                                          } else {
                                                              return 9;
                                                          }
                                                      } else {
                                                          if (features[500] < 73474596864.000000f) {
                                                              return 3;
                                                          } else {
                                                              return 5;
                                                          }
                                                      }
                                                  } else {
                                                      if (features[554] < 8601249792.000000f) {
                                                          if (features[995] < 69128202240.000000f) {
                                                              return 6;
                                                          } else {
                                                              return 0;
                                                          }
                                                      } else {
                                                          return 8;
                                                      }
                                                  }
                                              }
                                          }
                                      }
                                  } else {
                                      if (features[88] < 467570992.000000f) {
                                          if (features[227] < 4706845.000000f) {
                                              return 8;
                                          } else {
                                              if (features[479] < 5780930048.000000f) {
                                                  return 0;
                                              } else {
                                                  return 9;
                                              }
                                          }
                                      } else {
                                          if (features[676] < 792073504.000000f) {
                                              if (features[12] < 17344849920.000000f) {
                                                  if (features[662] < 709781504.000000f) {
                                                      if (features[1021] < 488982511616.000000f) {
                                                          return 8;
                                                      } else {
                                                          return 9;
                                                      }
                                                  } else {
                                                      return 0;
                                                  }
                                              } else {
                                                  if (features[572] < 1665134976.000000f) {
                                                      return 9;
                                                  } else {
                                                      return 2;
                                                  }
                                              }
                                          } else {
                                              if (features[523] < 34919200768.000000f) {
                                                  return 6;
                                              } else {
                                                  if (features[590] < 4751725056.000000f) {
                                                      if (features[425] < 978461024.000000f) {
                                                          if (features[88] < 781689472.000000f) {
                                                              return 0;
                                                          } else {
                                                              if (features[65] < 2798270080.000000f) {
                                                                  return 2;
                                                              } else {
                                                                  return 4;
                                                              }
                                                          }
                                                      } else {
                                                          if (features[16] < 71666800640.000000f) {
                                                              return 9;
                                                          } else {
                                                              return 2;
                                                          }
                                                      }
                                                  } else {
                                                      if (features[513] < 640940998656.000000f) {
                                                          if (features[876] < 2202535040.000000f) {
                                                              if (features[601] < 7824110080.000000f) {
                                                                  if (features[885] < 2102695040.000000f) {
                                                                      if (features[490] < 9229635072.000000f) {
                                                                          return 2;
                                                                      } else {
                                                                          if (features[278] < 98394846.000000f) {
                                                                              return 6;
                                                                          } else {
                                                                              if (features[958] < 17214900352.000000f) {
                                                                                  return 3;
                                                                              } else {
                                                                                  return 9;
                                                                              }
                                                                          }
                                                                      }
                                                                  } else {
                                                                      return 0;
                                                                  }
                                                              } else {
                                                                  if (features[22] < 20374599680.000000f) {
                                                                      return 8;
                                                                  } else {
                                                                      return 5;
                                                                  }
                                                              }
                                                          } else {
                                                              if (features[614] < 7572104960.000000f) {
                                                                  return 3;
                                                              } else {
                                                                  if (features[968] < 19757369600.000000f) {
                                                                      return 4;
                                                                  } else {
                                                                      return 9;
                                                                  }
                                                              }
                                                          }
                                                      } else {
                                                          if (features[852] < 745108512.000000f) {
                                                              return 4;
                                                          } else {
                                                              return 2;
                                                          }
                                                      }
                                                  }
                                              }
                                          }
                                      }
                                  }
                              } else {
                                  if (features[6] < 86561648640.000000f) {
                                      if (features[361] < 239088504.000000f) {
                                          return 8;
                                      } else {
                                          if (features[787] < 698167488.000000f) {
                                              if (features[513] < 801740488704.000000f) {
                                                  if (features[688] < 779358016.000000f) {
                                                      return 3;
                                                  } else {
                                                      if (features[600] < 2281089984.000000f) {
                                                          return 8;
                                                      } else {
                                                          return 4;
                                                      }
                                                  }
                                              } else {
                                                  return 4;
                                              }
                                          } else {
                                              if (features[1017] < 100843499520.000000f) {
                                                  return 8;
                                              } else {
                                                  if (features[222] < 1529965024.000000f) {
                                                      return 4;
                                                  } else {
                                                      return 8;
                                                  }
                                              }
                                          }
                                      }
                                  } else {
                                      if (features[555] < 28949000192.000000f) {
                                          if (features[1019] < 558198521856.000000f) {
                                              if (features[510] < 942848999424.000000f) {
                                                  if (features[583] < 1766254976.000000f) {
                                                      return 2;
                                                  } else {
                                                      if (features[205] < 820716000.000000f) {
                                                          return 9;
                                                      } else {
                                                          return 4;
                                                      }
                                                  }
                                              } else {
                                                  if (features[499] < 61837948928.000000f) {
                                                      if (features[607] < 12251549696.000000f) {
                                                          if (features[754] < 707474976.000000f) {
                                                              if (features[789] < 87102000.000000f) {
                                                                  return 0;
                                                              } else {
                                                                  if (features[433] < 2539045056.000000f) {
                                                                      return 6;
                                                                  } else {
                                                                      return 5;
                                                                  }
                                                              }
                                                          } else {
                                                              return 7;
                                                          }
                                                      } else {
                                                          return 3;
                                                      }
                                                  } else {
                                                      return 8;
                                                  }
                                              }
                                          } else {
                                              if (features[577] < 5854204928.000000f) {
                                                  return 7;
                                              } else {
                                                  return 4;
                                              }
                                          }
                                      } else {
                                          return 7;
                                      }
                                  }
                              }
                          } else {
                              if (features[738] < 24494200.000000f) {
                                  if (features[945] < 22044850176.000000f) {
                                      if (features[473] < 15012550144.000000f) {
                                          return 6;
                                      } else {
                                          return 9;
                                      }
                                  } else {
                                      return 0;
                                  }
                              } else {
                                  if (features[126] < 3719444992.000000f) {
                                      if (features[723] < 293383504.000000f) {
                                          if (features[1010] < 147774496768.000000f) {
                                              if (features[847] < 1160184960.000000f) {
                                                  if (features[706] < 174697000.000000f) {
                                                      return 2;
                                                  } else {
                                                      return 6;
                                                  }
                                              } else {
                                                  if (features[41] < 15779549696.000000f) {
                                                      return 4;
                                                  } else {
                                                      if (features[158] < 1001726016.000000f) {
                                                          return 3;
                                                      } else {
                                                          return 2;
                                                      }
                                                  }
                                              }
                                          } else {
                                              if (features[997] < 68868198400.000000f) {
                                                  if (features[1003] < 141519003648.000000f) {
                                                      if (features[842] < 1304134976.000000f) {
                                                          if (features[977] < 27083249664.000000f) {
                                                              return 0;
                                                          } else {
                                                              if (features[760] < 77403050.000000f) {
                                                                  return 1;
                                                              } else {
                                                                  return 6;
                                                              }
                                                          }
                                                      } else {
                                                          return 3;
                                                      }
                                                  } else {
                                                      return 9;
                                                  }
                                              } else {
                                                  if (features[618] < 1557320064.000000f) {
                                                      if (features[425] < 942197504.000000f) {
                                                          return 1;
                                                      } else {
                                                          return 2;
                                                      }
                                                  } else {
                                                      return 0;
                                                  }
                                              }
                                          }
                                      } else {
                                          if (features[501] < 54347399168.000000f) {
                                              if (features[615] < 4527625216.000000f) {
                                                  if (features[688] < 961087520.000000f) {
                                                      return 7;
                                                  } else {
                                                      return 9;
                                                  }
                                              } else {
                                                  if (features[519] < 100289400832.000000f) {
                                                      if (features[758] < 592511504.000000f) {
                                                          return 6;
                                                      } else {
                                                          return 9;
                                                      }
                                                  } else {
                                                      if (features[518] < 561812013056.000000f) {
                                                          if (features[459] < 31116449792.000000f) {
                                                              return 3;
                                                          } else {
                                                              return 2;
                                                          }
                                                      } else {
                                                          return 7;
                                                      }
                                                  }
                                              }
                                          } else {
                                              if (features[31] < 46580049920.000000f) {
                                                  if (features[12] < 103768997888.000000f) {
                                                      if (features[667] < 3534440064.000000f) {
                                                          if (features[74] < 2689924960.000000f) {
                                                              return 8;
                                                          } else {
                                                              return 4;
                                                          }
                                                      } else {
                                                          if (features[310] < 534596496.000000f) {
                                                              if (features[167] < 1529179968.000000f) {
                                                                  if (features[286] < 54922550.000000f) {
                                                                      return 0;
                                                                  } else {
                                                                      if (features[405] < 3150010048.000000f) {
                                                                          return 2;
                                                                      } else {
                                                                          return 3;
                                                                      }
                                                                  }
                                                              } else {
                                                                  return 6;
                                                              }
                                                          } else {
                                                              return 7;
                                                          }
                                                      }
                                                  } else {
                                                      if (features[537] < 137613000704.000000f) {
                                                          return 2;
                                                      } else {
                                                          if (features[762] < 793777024.000000f) {
                                                              return 4;
                                                          } else {
                                                              return 7;
                                                          }
                                                      }
                                                  }
                                              } else {
                                                  if (features[624] < 2239355008.000000f) {
                                                      if (features[559] < 52960100352.000000f) {
                                                          return 5;
                                                      } else {
                                                          return 8;
                                                      }
                                                  } else {
                                                      return 9;
                                                  }
                                              }
                                          }
                                      }
                                  } else {
                                      if (features[555] < 129081499648.000000f) {
                                          if (features[107] < 3512235008.000000f) {
                                              return 4;
                                          } else {
                                              return 6;
                                          }
                                      } else {
                                          return 8;
                                      }
                                  }
                              }
                          }
                      } else {
                          if (features[416] < 4888809984.000000f) {
                              if (features[262] < 55759500.000000f) {
                                  if (features[20] < 55304648704.000000f) {
                                      return 3;
                                  } else {
                                      return 0;
                                  }
                              } else {
                                  if (features[982] < 6821185024.000000f) {
                                      return 7;
                                  } else {
                                      return 4;
                                  }
                              }
                          } else {
                              if (features[846] < 5206760192.000000f) {
                                  return 7;
                              } else {
                                  return 3;
                              }
                          }
                      }
                  }
              } else {
                  if (features[1014] < 509768499200.000000f) {
                      if (features[769] < 3109430016.000000f) {
                          return 9;
                      } else {
                          if (features[611] < 3141214976.000000f) {
                              return 3;
                          } else {
                              return 7;
                          }
                      }
                  } else {
                      return 4;
                  }
              }
          }
        }
        

int32_t decision_tree_predict(const float *features, int32_t features_length) {

        int32_t votes[10] = {0,};
        int32_t _class = -1;

        _class = decision_tree_tree_0(features, features_length); votes[_class] += 1;
    
        int32_t most_voted_class = -1;
        int32_t most_voted_votes = 0;
        for (int32_t i=0; i<10; i++) {

            if (votes[i] > most_voted_votes) {
                most_voted_class = i;
                most_voted_votes = votes[i];
            }
        }
        return most_voted_class;
    }
    